2.468306571245193481e-02,-9.800248593091964722e-02,-6.801123917102813721e-02,1.231536567211151123e-01,6.756407767534255981e-02,3.093150071799755096e-02,5.566760152578353882e-02,7.330623269081115723e-01,-1.158453598618507385e-01,-8.195688575506210327e-02,8.484873175621032715e-02,5.480369329452514648e-01,2.151653543114662170e-02,5.574729666113853455e-02,9.617615491151809692e-03,2.142435759305953979e-01,3.010844886302947998e-01,1.005856394767761230e-01
4.048337414860725403e-02,-6.549123674631118774e-02,5.712700262665748596e-02,9.604746848344802856e-02,4.011884704232215881e-02,4.795613884925842285e-02,5.534584820270538330e-02,3.510648012161254883e-01,-1.079247742891311646e-01,3.867077827453613281e-01,8.333455771207809448e-02,-1.095746308565139771e-01,-8.238582871854305267e-03,6.405317783355712891e-02,-3.825102373957633972e-02,3.634207546710968018e-01,2.593915760517120361e-01,-4.505338519811630249e-02
3.693097457289695740e-02,-7.465357333421707153e-02,1.695128977298736572e-01,8.684761077165603638e-02,5.870300903916358948e-02,7.995917648077011108e-02,7.080391794443130493e-02,-6.230030059814453125e-01,-1.236024126410484314e-01,-3.436372056603431702e-02,5.105725303292274475e-02,-4.488134980201721191e-01,8.080890402197837830e-03,6.252275407314300537e-02,-1.610160768032073975e-01,-6.893224269151687622e-02,-1.975397616624832153e-01,-1.830806881189346313e-01
