1.048769056797027588e-02,5.879033356904983521e-02,-2.128292173147201538e-01,1.064914986491203308e-01,1.034878864884376526e-01,3.133962163701653481e-03,4.677689075469970703e-02,5.502390265464782715e-01,3.844709135591983795e-04,-3.322532176971435547e-01,3.463152796030044556e-02,4.296966493129730225e-01,1.401068549603223801e-02,-1.061166152358055115e-01,9.384267032146453857e-02,1.458574552088975906e-02,3.789938390254974365e-01,2.553171217441558838e-01
2.210339158773422241e-02,8.524969965219497681e-02,-8.361956477165222168e-02,8.671802282333374023e-02,1.002144366502761841e-01,7.899423129856586456e-03,4.061917215585708618e-02,1.732735633850097656e-01,7.420562673360109329e-03,1.279032677412033081e-01,4.019944742321968079e-02,-2.145107388496398926e-01,1.061401702463626862e-02,-1.237383037805557251e-01,4.362972453236579895e-02,1.380419731140136719e-01,3.183492720127105713e-01,1.190936639904975891e-01
2.167903445661067963e-02,7.568092644214630127e-02,1.076007168740034103e-02,7.857052981853485107e-02,1.252322793006896973e-01,4.411503672599792480e-02,4.949165508151054382e-02,-8.210313320159912109e-01,4.018743522465229034e-03,-2.761633992195129395e-01,5.547406617552042007e-03,-5.548155307769775391e-01,1.535954885184764862e-03,-9.248133003711700439e-02,-8.675216138362884521e-02,-2.540077567100524902e-01,-1.250896155834197998e-01,-3.045546635985374451e-02
