7.478422019630670547e-03,6.656070053577423096e-02,-5.412131920456886292e-02,1.283414512872695923e-01,6.783398985862731934e-02,-2.311427518725395203e-02,3.890448436141014099e-02,7.013175487518310547e-01,3.289558365941047668e-02,-1.443957984447479248e-01,4.018180072307586670e-02,5.323696732521057129e-01,-2.819520048797130585e-02,5.307378247380256653e-02,8.924788981676101685e-02,9.799149632453918457e-02,3.170616626739501953e-01,1.552588641643524170e-01
8.611018769443035126e-03,7.141058892011642456e-02,6.246454641222953796e-02,1.261288821697235107e-01,5.089966952800750732e-02,-1.515950169414281845e-02,2.855702862143516541e-02,3.320481777191162109e-01,1.900416426360607147e-02,3.181935250759124756e-01,5.244791507720947266e-02,-8.504882454872131348e-02,-4.269975051283836365e-02,8.462364971637725830e-02,4.158227145671844482e-02,2.292356640100479126e-01,2.333438992500305176e-01,7.891572080552577972e-03
9.525500354357063770e-04,7.083781063556671143e-02,1.824812293052673340e-01,9.943075478076934814e-02,4.633119329810142517e-02,1.382972579449415207e-03,4.040497541427612305e-02,-6.611803770065307617e-01,2.494891732931137085e-02,-1.073400378227233887e-01,5.787604954093694687e-03,-4.502789676189422607e-01,-3.654691576957702637e-02,6.321284919977188110e-02,-8.490576595067977905e-02,-2.101727426052093506e-01,-2.042715698480606079e-01,-1.241110116243362427e-01
