-2.298385649919509888e-01,1.761142979376018047e-03,-3.470702469348907471e-01,7.628850638866424561e-02,-5.560164153575897217e-02,3.972481191158294678e-02,-1.431927084922790527e-01,-4.991319403052330017e-02,-4.531314969062805176e-02,-2.574956715106964111e-01,-1.880786269903182983e-01,2.548876106739044189e-01,-4.787968993186950684e-01,-1.550043672323226929e-01,1.372047364711761475e-01,-1.724614202976226807e-02,1.005163788795471191e-01,-1.262167096138000488e-01,-4.571810364723205566e-01,1.058844476938247681e-01,-4.214861895889043808e-03,4.324511587619781494e-01,-3.965428471565246582e-02,-1.776998490095138550e-02,-3.168490156531333923e-02,1.055512502789497375e-01,1.025227233767509460e-01,-8.676513284444808960e-02,-1.193446591496467590e-01,3.295047581195831299e-02,1.779494434595108032e-01,-1.618750542402267456e-01,-1.059321910142898560e-01,1.013184115290641785e-01,3.494008257985115051e-02,-6.424102187156677246e-02,2.117619616910815239e-03,2.489394322037696838e-02,-2.139199376106262207e-01,-2.995154075324535370e-02,6.567448377609252930e-02,-1.839344948530197144e-01,-1.127046048641204834e-01,5.692347139120101929e-02,6.843444705009460449e-02,-7.093894481658935547e-02,-3.432167744454872604e-11,9.624566137790679932e-02,-6.584589183330535889e-02,6.262560188770294189e-02,7.181579619646072388e-02,-2.284749746322631836e-01,1.809765994548797607e-01,-8.859386295080184937e-02,2.547406591475009918e-03,-1.949355155229568481e-01,6.689682602882385254e-02,-1.874540746212005615e-01,1.456686407327651978e-01,1.570486277341842651e-01,-2.255994826555252075e-02,1.382977664470672607e-01,-2.238507382571697235e-02,-3.242922574281692505e-02,-1.236863056419679197e-09,-3.469504788517951965e-02,-2.515242397785186768e-01,-8.868830651044845581e-02,-9.074235707521438599e-02,-5.902322381734848022e-02,1.103452593088150024e-01,2.536216005682945251e-02,-1.094786226749420166e-01,-2.292499393224716187e-01,-1.163387075066566467e-01,-7.857608795166015625e-02,-2.066998183727264404e-01,5.751330405473709106e-02,1.208095401525497437e-01,-9.452680498361587524e-02,2.793489955365657806e-03,-2.479405142366886139e-02,-1.662175804376602173e-01,1.187617778778076172e-01,-2.493490576744079590e-01,-2.687582373619079590e-01,1.899099797010421753e-01,3.728873282670974731e-02,4.599621519446372986e-02,-6.176755204796791077e-02,1.117845401167869568e-01,-1.510319858789443970e-01,2.024652361869812012e-01,4.637490585446357727e-02,-1.938152164220809937e-01,5.096480250358581543e-02,-2.549471557140350342e-01,-1.707977801561355591e-01,3.910304978489875793e-02,7.953052967786788940e-02,1.025417521595954895e-01,-2.015432808548212051e-03,3.385688364505767822e-02,2.522165514528751373e-02,-2.796641737222671509e-02,-1.126908287405967712e-01,7.587998360395431519e-02,1.084148064255714417e-01,1.051873713731765747e-01,1.684008091688156128e-01,6.539727002382278442e-02,5.407372117042541504e-02,9.443170577287673950e-02,-2.157155722379684448e-01,7.812687009572982788e-02,7.609468698501586914e-02,6.433054804801940918e-02,2.020302787423133850e-02,-7.703763991594314575e-02,-1.738260090351104736e-01,-1.192943826317787170e-01,1.717633008956909180e-01,-1.276374459266662598e-01,-2.354879379272460938e-01,-1.480444520711898804e-01,3.081815242767333984e-01,1.062114350497722626e-02,-2.133964300155639648e-01
9.987729787826538086e-01,1.038808822631835938e-01,5.901694893836975098e-01,7.272114604711532593e-02,-1.750443279743194580e-01,4.807530716061592102e-02,1.486171633005142212e-01,-5.174649134278297424e-02,3.335243165493011475e-01,4.318157583475112915e-02,6.851767003536224365e-02,-9.166886657476425171e-02,3.576042950153350830e-01,1.085290163755416870e-01,2.428608573973178864e-02,-8.852344751358032227e-02,5.494478624314069748e-03,5.383377149701118469e-02,5.941599607467651367e-01,9.487585723400115967e-02,1.478652954101562500e-01,-2.350997179746627808e-01,-2.428281903266906738e-01,1.708462834358215332e-01,1.059902831912040710e-02,1.373745054006576538e-01,-4.036803171038627625e-02,3.020380623638629913e-02,3.599900379776954651e-02,1.365788131952285767e-01,-1.175305321812629700e-01,1.141520664095878601e-01,-3.414559364318847656e-02,5.446468666195869446e-02,1.344967931509017944e-01,-1.756364665925502777e-02,2.894450910389423370e-02,1.662342548370361328e-01,1.316727325320243835e-02,-2.299820631742477417e-01,3.276960551738739014e-02,-4.046222195029258728e-02,5.351155996322631836e-03,1.029389724135398865e-01,1.003890484571456909e-01,2.189145535230636597e-01,-1.273718509950307748e-14,-1.961494833230972290e-01,-1.417699754238128662e-01,7.876454293727874756e-02,-1.264193952083587646e-01,1.532890200614929199e-01,-1.150954067707061768e-01,4.163187369704246521e-02,4.230684041976928711e-02,8.316055871546268463e-03,4.667351022362709045e-02,5.418668687343597412e-02,8.314494974911212921e-03,9.042578749358654022e-03,-1.081288531422615051e-01,-4.468661174178123474e-02,6.810727715492248535e-02,5.258078500628471375e-02,3.249224000967387838e-09,6.642840802669525146e-02,-5.770115554332733154e-02,3.883772790431976318e-01,7.034116983413696289e-02,-1.442427486181259155e-01,-2.123410105705261230e-01,4.336584210395812988e-01,5.731285363435745239e-02,2.437200844287872314e-01,1.994581334292888641e-02,7.569561153650283813e-02,-9.024105221033096313e-02,-2.648820169270038605e-02,-2.288179099559783936e-01,3.675261884927749634e-02,1.954597048461437225e-02,-2.109857648611068726e-01,6.946954131126403809e-02,4.220857098698616028e-02,1.590314656496047974e-01,2.013694196939468384e-01,-2.448995858430862427e-01,-5.621100217103958130e-02,8.222676813602447510e-02,1.683924347162246704e-01,6.094174832105636597e-02,7.217375561594963074e-03,1.095205843448638916e-01,3.365317359566688538e-02,-6.232773140072822571e-02,4.405728355050086975e-02,1.824565976858139038e-01,-1.238854303956031799e-01,3.038892708718776703e-02,-1.268644928932189941e-01,1.016006991267204285e-01,1.025090962648391724e-01,-1.631220281124114990e-01,7.332193106412887573e-02,2.855144068598747253e-02,1.541281938552856445e-01,9.696181118488311768e-02,1.165150105953216553e-01,4.289739299565553665e-03,-2.676951885223388672e-01,-1.648657768964767456e-01,9.848490357398986816e-03,1.176981180906295776e-01,4.189674258232116699e-01,7.800381630659103394e-02,-7.377322018146514893e-02,7.147926092147827148e-02,2.520745247602462769e-02,7.272840291261672974e-02,2.222121693193912506e-02,2.121212482452392578e-01,1.690624058246612549e-01,-5.804173648357391357e-02,-6.438718736171722412e-02,-3.072969987988471985e-02,-1.182788908481597900e-01,3.756721317768096924e-02,9.959945082664489746e-01
-8.804054856300354004e-01,-9.559272788465023041e-03,-5.530983209609985352e-01,-1.192414984107017517e-01,1.423952877521514893e-01,-1.356476694345474243e-01,-4.415067657828330994e-02,-1.787008643150329590e-01,-3.018971979618072510e-01,4.733484610915184021e-02,1.143685430288314819e-01,-2.742505446076393127e-02,-2.062467485666275024e-01,3.267850726842880249e-03,-5.663985013961791992e-01,1.306518912315368652e-01,-4.331495761871337891e-01,-4.350446164608001709e-02,-3.373653292655944824e-01,-4.556833207607269287e-02,-3.162250220775604248e-01,-3.470233976840972900e-01,1.770339310169219971e-01,-3.058151341974735260e-02,-1.336244046688079834e-01,-1.798875480890274048e-01,-2.226146608591079712e-01,3.898119926452636719e-02,6.168608367443084717e-02,-1.844144910573959351e-01,-4.003654420375823975e-01,4.250983521342277527e-02,1.260279715061187744e-01,-2.037536799907684326e-01,-1.976353675127029419e-01,6.921751424670219421e-03,-1.275509297847747803e-01,-3.960813879966735840e-01,1.506895720958709717e-01,1.394855678081512451e-01,-1.280857622623443604e-01,1.690702326595783234e-02,1.685771904885768890e-02,-1.237202584743499756e-01,-2.553425729274749756e-01,-1.568467766046524048e-01,2.855054515338463625e-16,1.336078494787216187e-01,1.407529115676879883e-01,-9.060613065958023071e-02,1.020339280366897583e-01,1.093599200248718262e-01,-1.185689568519592285e-01,6.633979082107543945e-02,1.443204842507839203e-02,-2.505362592637538910e-02,-1.439927518367767334e-01,7.468206435441970825e-02,-5.407942533493041992e-01,-3.702157437801361084e-01,1.621896028518676758e-01,-2.167011201381683350e-01,-1.231199279427528381e-01,-9.010651707649230957e-02,-4.972137097342645895e-38,1.196786761283874512e-01,3.191206455230712891e-01,-4.546488523483276367e-01,9.071575850248336792e-02,1.484842449426651001e-01,1.534940153360366821e-01,-5.130432248115539551e-01,4.678875952959060669e-02,-9.465645416639745235e-05,5.183671042323112488e-02,7.596747577190399170e-02,3.311016559600830078e-01,-2.267787009477615356e-01,8.381557464599609375e-02,3.646363690495491028e-02,-1.910073608160018921e-01,2.048430144786834717e-01,8.131650835275650024e-02,-1.238222643733024597e-01,4.805509746074676514e-02,-3.804580541327595711e-03,1.801444292068481445e-01,-2.514512538909912109e-01,-8.525882661342620850e-02,-2.019083797931671143e-01,-1.438949257135391235e-01,7.477792352437973022e-02,-5.679048299789428711e-01,-2.518613934516906738e-01,1.177242100238800049e-01,-2.722638547420501709e-01,1.211496419273316860e-03,2.920391261577606201e-01,-2.188678681850433350e-01,4.225744679570198059e-02,-1.090500131249427795e-01,-1.428883671760559082e-01,2.449289709329605103e-01,-1.370738148689270020e-01,-1.401508413255214691e-02,-2.303402870893478394e-01,-3.192438781261444092e-01,-2.152391076087951660e-01,-2.396604418754577637e-01,-8.207420259714126587e-02,1.747444570064544678e-01,-1.890448778867721558e-01,-9.587293118238449097e-02,-3.191722035408020020e-01,-1.636781841516494751e-01,-2.691211700439453125e-01,-2.752713859081268311e-01,-1.747416406869888306e-01,-1.768766343593597412e-01,6.105979159474372864e-02,-7.862378656864166260e-02,-4.604723751544952393e-01,1.461863964796066284e-01,1.785485595464706421e-01,-1.199461054056882858e-02,-2.655948996543884277e-01,3.148771449923515320e-02,-9.840914607048034668e-01
