4.592198431491851807e-01,-1.746249049901962280e-01,-1.999540627002716064e-02,8.446016907691955566e-02,-5.236744284629821777e-01,-1.715207099914550781e-01,-1.886694036556946230e-07,-2.006928669288754463e-03,1.201095655560493469e-01,-1.184843753663191040e-27,5.152608454227447510e-02,-4.562363028526306152e-02,1.956014633178710938e-01,1.909326948225498199e-02,-9.979645162820816040e-02,3.150222450494766235e-02,-8.334497362375259399e-02,4.178620874881744385e-02,-3.238544166088104248e-01,7.542391866445541382e-02,-3.882528096437454224e-02,2.277803719043731689e-01,-2.190160751342773438e-01,1.400844305753707886e-01,-6.247272714972496033e-02,5.897153168916702271e-04,-7.174678891897201538e-02,1.421301513910293579e-01,2.137528955936431885e-01,-2.834536135196685791e-01,2.696338593959808350e-01,1.405526697635650635e-01,-2.984359264373779297e-01,1.113527566194534302e-01,-2.086512893438339233e-01,3.209723234176635742e-01,-3.302353993058204651e-02,-9.090551733970642090e-02,5.654710158705711365e-02,1.047645136713981628e-01,-5.614939704537391663e-02,3.842797279357910156e-01,3.642667457461357117e-02,1.074621602892875671e-01,-1.375682801008224487e-01,8.961785584688186646e-02,9.092902392148971558e-02,-6.335940957069396973e-02,-1.836965680122375488e-01,1.269767135381698608e-01,-1.172244027256965637e-01,8.832618594169616699e-02,5.388682335615158081e-02,7.979366183280944824e-02,-1.737829297780990601e-01,3.564833998680114746e-01,4.274890124797821045e-01,-2.373242378234863281e-02,-2.156175523996353149e-01,2.012524455785751343e-01,1.881280690431594849e-01,-1.123824566602706909e-01,-2.066777274012565613e-02,-5.184385776519775391e-01,-3.435551226139068604e-01,-1.600636243820190430e-01,-1.102623119950294495e-01,-1.305328607559204102e-01,1.303638517856597900e-01,6.573671475052833557e-03,-2.919566035270690918e-01,1.909788697957992554e-01,5.801849067211151123e-02,3.759039044380187988e-01,1.287061870098114014e-01,-1.965254843235015869e-01,-2.069509923458099365e-01,3.411437943577766418e-02,6.096820533275604248e-02,-1.236798614263534546e-01,6.917640566825866699e-02,1.096844598650932312e-01,-1.908482313156127930e-01,-1.654825955629348755e-01,2.207760959863662720e-01,-8.680679649114608765e-02,-1.108708009123802185e-01,-1.965214908123016357e-01,3.686873242259025574e-02,2.659635841846466064e-01,-6.857133656740188599e-02,6.171747297048568726e-02,1.028933003544807434e-02,4.384361505508422852e-01,2.865024209022521973e-01,4.757714644074440002e-02,1.345454752445220947e-01,-1.615200787782669067e-01,-9.260674566030502319e-02,1.271968334913253784e-01,-2.318727523088455200e-01,3.111798316240310669e-03,-1.506635844707489014e-01,5.718199908733367920e-02,4.384971261024475098e-01,2.001329064369201660e-01,8.703436702489852905e-03,-3.239282071590423584e-01,-1.479114443063735962e-01,-8.915030211210250854e-02,-1.524604018777608871e-02,-4.594955742359161377e-01,-3.187695443630218506e-01,-2.066928148269653320e-01,-6.423074007034301758e-02,-1.834196001291275024e-01,1.087876185774803162e-01,4.690194427967071533e-01,4.598391056060791016e-02,-1.528343409299850464e-01,6.475190073251724243e-02,3.080087304115295410e-01,2.837211489677429199e-01,1.230260729789733887e-01,9.090013802051544189e-02,-1.631929874420166016e-01,4.966386407613754272e-02,7.218170166015625000e-02
-2.949531674385070801e-01,5.004118196666240692e-03,-2.584300702437758446e-03,8.042719960212707520e-02,4.271469712257385254e-01,6.383427977561950684e-01,-5.021891865908401087e-06,9.404211491346359253e-02,6.253418326377868652e-02,4.018425974209354319e-38,1.231063827872276306e-01,-1.303350776433944702e-01,-4.259343147277832031e-01,5.624141916632652283e-02,1.359156966209411621e-01,4.397198557853698730e-02,1.701354980468750000e-01,1.330428197979927063e-02,-2.653056569397449493e-02,-2.656317353248596191e-01,1.341894567012786865e-01,-3.898541331291198730e-01,1.646330463699996471e-03,-2.693956950679421425e-03,-1.254090815782546997e-01,5.804334953427314758e-02,6.033531203866004944e-02,1.234904676675796509e-01,-3.511229902505874634e-02,1.261321306228637695e-01,-6.471903622150421143e-02,-2.799004912376403809e-01,1.660178750753402710e-01,1.167883053421974182e-01,-3.108004340901970863e-03,-1.707824468612670898e-01,2.657825052738189697e-01,-7.572352141141891479e-02,9.861479699611663818e-02,8.259842544794082642e-02,6.366569399833679199e-01,-1.538383662700653076e-01,1.088952198624610901e-01,1.035396084189414978e-01,3.179188817739486694e-02,1.033750548958778381e-01,6.430304795503616333e-02,4.558916389942169189e-02,6.445894949138164520e-03,-2.434452474117279053e-01,5.142304673790931702e-02,5.781095847487449646e-02,1.882767230272293091e-01,7.902802526950836182e-02,7.874403893947601318e-02,-3.122651278972625732e-01,-8.812854439020156860e-02,1.603258848190307617e-01,8.510129153728485107e-02,7.469310425221920013e-03,-1.291155535727739334e-02,2.714894413948059082e-01,4.536737687885761261e-03,6.600180268287658691e-01,6.607883572578430176e-01,1.176034733653068542e-01,-1.612524092197418213e-01,9.756092727184295654e-02,7.514455914497375488e-02,4.377100151032209396e-03,-9.143140166997909546e-02,3.115895017981529236e-02,8.742570132017135620e-02,-6.456467509269714355e-01,-3.047014176845550537e-01,1.324127018451690674e-01,5.952159762382507324e-01,7.632571458816528320e-02,-3.921158984303474426e-02,6.160466372966766357e-02,5.023272708058357239e-02,4.219217225909233093e-02,2.004594653844833374e-01,6.552807092666625977e-01,-1.299872528761625290e-02,9.031508862972259521e-02,-9.737141430377960205e-02,4.031237959861755371e-02,7.855490595102310181e-02,-1.370244175195693970e-01,4.014291614294052124e-02,8.829268813133239746e-02,-3.152204453945159912e-01,-1.698387861251831055e-01,-2.433726340532302856e-01,-1.180390045046806335e-01,1.525267809629440308e-01,2.059983834624290466e-02,1.038858741521835327e-01,7.339993119239807129e-02,9.375262260437011719e-02,-2.550730109214782715e-01,3.459437787532806396e-01,-4.075339436531066895e-01,-2.996120154857635498e-01,-2.732812464237213135e-01,1.243541911244392395e-01,1.219236969947814941e+00,-5.052082613110542297e-02,-8.261492103338241577e-02,1.170409992337226868e-01,2.673095762729644775e-01,2.251686751842498779e-01,-4.683223553001880646e-03,7.155097275972366333e-02,-6.453699897974729538e-03,-1.920771896839141846e-01,-4.096911847591400146e-01,-5.430961609818041325e-04,-6.021228805184364319e-02,-2.064096033573150635e-01,-2.458987981081008911e-01,-1.619832217693328857e-01,1.074413806200027466e-01,5.713960528373718262e-02,3.226971719413995743e-03,6.644219905138015747e-02,1.535088419914245605e-01
-4.410630166530609131e-01,2.168874442577362061e-02,1.566582545638084412e-02,-2.655486762523651123e-01,-1.259635388851165771e-01,-5.578147172927856445e-01,-3.302321527343110574e-09,-1.173352450132369995e-01,-3.374531865119934082e-01,2.116343026870156136e-29,-2.006667256355285645e-01,1.157944053411483765e-01,1.996921896934509277e-01,-1.287686377763748169e-01,2.322199009358882904e-02,-4.268400669097900391e-01,-8.556222915649414062e-02,-4.149143695831298828e-01,3.122805058956146240e-01,2.036891281604766846e-01,-2.740027606487274170e-01,2.190520167350769043e-01,9.236684441566467285e-02,-4.074052274227142334e-01,1.160403862595558167e-01,-1.004265621304512024e-01,6.979804486036300659e-02,-3.810716867446899414e-01,-3.789414763450622559e-01,-2.387031540274620056e-02,-1.177194491028785706e-01,1.737336069345474243e-01,1.805028691887855530e-02,-4.364392459392547607e-01,1.353541016578674316e-01,-6.763982772827148438e-02,-2.181793898344039917e-01,2.402587980031967163e-01,-1.556456834077835083e-01,-3.991729319095611572e-01,-6.398368477821350098e-01,-4.360075891017913818e-01,-1.532999575138092041e-01,-3.714772462844848633e-01,-9.905468672513961792e-03,-3.764318525791168213e-01,-2.529314756393432617e-01,5.080121010541915894e-02,1.164870783686637878e-01,8.776351064443588257e-02,1.285591274499893188e-01,-2.871802151203155518e-01,-2.918611764907836914e-01,-1.894765496253967285e-01,-1.782428473234176636e-03,-2.605212032794952393e-01,-6.486960649490356445e-01,-1.287227123975753784e-01,2.563874721527099609e-01,-6.890660524368286133e-01,-2.603673636913299561e-01,-3.095524013042449951e-01,2.035830169916152954e-02,-3.934944570064544678e-01,-6.078033447265625000e-01,5.724164098501205444e-02,2.092116773128509521e-01,1.321474462747573853e-01,-1.685852557420730591e-01,4.810409620404243469e-03,1.805227547883987427e-01,-4.212003350257873535e-01,-1.593137979507446289e-01,1.260537505149841309e-01,1.601900458335876465e-01,6.733729038387537003e-03,-5.966949462890625000e-01,-2.150899469852447510e-01,-5.833647847175598145e-01,8.799964934587478638e-02,-2.006548941135406494e-01,-4.114726185798645020e-01,7.789148390293121338e-02,-7.831206321716308594e-01,-4.840005636215209961e-01,-1.597440987825393677e-01,1.327139735221862793e-01,2.465259842574596405e-02,-2.684309184551239014e-01,-3.962740898132324219e-01,1.338300406932830811e-01,-1.531166881322860718e-01,9.941501170396804810e-02,-1.667936146259307861e-01,-2.517658770084381104e-01,1.458499580621719360e-01,-2.252784520387649536e-01,1.819048449397087097e-02,-1.040080264210700989e-01,-2.635023295879364014e-01,-1.941397972404956818e-02,1.762438267469406128e-01,-6.025147065520286560e-02,5.139794349670410156e-01,-3.048495054244995117e-01,6.711947172880172729e-02,-3.534595668315887451e-02,-1.161406874656677246e+00,1.294725835323333740e-01,1.393228620290756226e-01,1.280717104673385620e-01,-4.660874977707862854e-02,2.308354526758193970e-02,9.232823736965656281e-03,1.140818223357200623e-01,5.197464674711227417e-02,5.602046102285385132e-02,-1.346514523029327393e-01,-1.682765968143939972e-02,2.171330451965332031e-01,2.182122319936752319e-01,-3.040986359119415283e-01,-3.188665807247161865e-01,-1.546194851398468018e-01,-2.858721315860748291e-01,6.522523239254951477e-03,-2.908887565135955811e-01,-7.205028831958770752e-02
